digraph Tree {
node [shape=box, style="filled, rounded", color="black", fontname="helvetica"] ;
edge [fontname="helvetica"] ;
0 [label="10_day_SMA_slope <= -0.002\ngini = 0.441\nsamples = 1896\nvalue = [1273, 623]\nclass = BUY", fillcolor="#f2bf9a"] ;
1 [label="Slope_6_day_SMA <= -0.006\ngini = 0.38\nsamples = 529\nvalue = [135, 394]\nclass = SELL", fillcolor="#7dbfee"] ;
0 -> 1 [labeldistance=2.5, labelangle=45, headlabel="True"] ;
2 [label="2yr_pct_chg <= 0.003\ngini = 0.153\nsamples = 227\nvalue = [19, 208]\nclass = SELL", fillcolor="#4ba6e7"] ;
1 -> 2 ;
3 [label="20_day_SMA <= 50.942\ngini = 0.073\nsamples = 132\nvalue = [5, 127]\nclass = SELL", fillcolor="#41a1e6"] ;
2 -> 3 ;
4 [label="gini = 0.029\nsamples = 68\nvalue = [1, 67]\nclass = SELL", fillcolor="#3c9ee5"] ;
3 -> 4 ;
5 [label="gini = 0.117\nsamples = 64\nvalue = [4, 60]\nclass = SELL", fillcolor="#46a4e7"] ;
3 -> 5 ;
6 [label="gini = 0.251\nsamples = 95\nvalue = [14.0, 81.0]\nclass = SELL", fillcolor="#5baee9"] ;
2 -> 6 ;
7 [label="CHLI_1Y <= 0.486\ngini = 0.473\nsamples = 302\nvalue = [116, 186]\nclass = SELL", fillcolor="#b4daf5"] ;
1 -> 7 ;
8 [label="10yr_2yr_diff <= 0.553\ngini = 0.368\nsamples = 177\nvalue = [43, 134]\nclass = SELL", fillcolor="#79bced"] ;
7 -> 8 ;
9 [label="gini = 0.449\nsamples = 91\nvalue = [31, 60]\nclass = SELL", fillcolor="#9fd0f2"] ;
8 -> 9 ;
10 [label="gini = 0.24\nsamples = 86\nvalue = [12, 74]\nclass = SELL", fillcolor="#59ade9"] ;
8 -> 10 ;
11 [label="gini = 0.486\nsamples = 125\nvalue = [73, 52]\nclass = BUY", fillcolor="#f8dbc6"] ;
7 -> 11 ;
12 [label="Slope_4_day_SMA <= -0.003\ngini = 0.279\nsamples = 1367\nvalue = [1138.0, 229.0]\nclass = BUY", fillcolor="#ea9a61"] ;
0 -> 12 [labeldistance=2.5, labelangle=-45, headlabel="False"] ;
13 [label="10_day_SMA <= 118.163\ngini = 0.473\nsamples = 214\nvalue = [132, 82]\nclass = BUY", fillcolor="#f5cfb4"] ;
12 -> 13 ;
14 [label="20_day_SMA_slope <= 0.001\ngini = 0.405\nsamples = 149\nvalue = [107, 42]\nclass = BUY", fillcolor="#efb287"] ;
13 -> 14 ;
15 [label="gini = 0.484\nsamples = 78\nvalue = [46, 32]\nclass = BUY", fillcolor="#f7d9c3"] ;
14 -> 15 ;
16 [label="gini = 0.242\nsamples = 71\nvalue = [61, 10]\nclass = BUY", fillcolor="#e99659"] ;
14 -> 16 ;
17 [label="gini = 0.473\nsamples = 65\nvalue = [25, 40]\nclass = SELL", fillcolor="#b5daf5"] ;
13 -> 17 ;
18 [label="20_day_SMA_slope <= -0.002\ngini = 0.222\nsamples = 1153\nvalue = [1006, 147]\nclass = BUY", fillcolor="#e99356"] ;
12 -> 18 ;
19 [label="gini = 0.485\nsamples = 75\nvalue = [44, 31]\nclass = BUY", fillcolor="#f7dac4"] ;
18 -> 19 ;
20 [label="ImpVol <= 0.269\ngini = 0.192\nsamples = 1078\nvalue = [962, 116]\nclass = BUY", fillcolor="#e89051"] ;
18 -> 20 ;
21 [label="gini = 0.124\nsamples = 600\nvalue = [560, 40]\nclass = BUY", fillcolor="#e78a47"] ;
20 -> 21 ;
22 [label="gini = 0.267\nsamples = 478\nvalue = [402, 76]\nclass = BUY", fillcolor="#ea995e"] ;
20 -> 22 ;
}